<?xml version="1.0"?>
<opencv_storage>
<stage9>
  <maxWeakCount>20</maxWeakCount>
  <stageThreshold>-8.5006523132324219e-01</stageThreshold>
  <weakClassifiers>
    <_>
      <internalNodes>
        0 -1 581808 2.7710363268852234e-01</internalNodes>
      <leafValues>
        2.5746980309486389e-01 -8.2677167654037476e-01</leafValues></_>
    <_>
      <internalNodes>
        0 -1 1043388 -3.0678883194923401e-04</internalNodes>
      <leafValues>
        4.7049286961555481e-01 -1.9449670612812042e-01</leafValues></_>
    <_>
      <internalNodes>
        0 -1 836529 -4.5692414045333862e-02</internalNodes>
      <leafValues>
        -7.0076936483383179e-01 1.2059340626001358e-01</leafValues></_>
    <_>
      <internalNodes>
        0 -1 1235261 -7.9840898979455233e-04</internalNodes>
      <leafValues>
        5.7602584362030029e-01 -1.5440423786640167e-01</leafValues></_>
    <_>
      <internalNodes>
        0 -1 1234992 3.9884092984721065e-04</internalNodes>
      <leafValues>
        -1.7109398543834686e-01 6.1522603034973145e-01</leafValues></_>
    <_>
      <internalNodes>
        0 -1 143916 -2.6164355222135782e-03</internalNodes>
      <leafValues>
        5.4182195663452148e-01 -1.4082810282707214e-01</leafValues></_>
    <_>
      <internalNodes>
        0 -1 957322 4.8302635550498962e-03</internalNodes>
      <leafValues>
        -1.3290880620479584e-01 5.2869158983230591e-01</leafValues></_>
    <_>
      <internalNodes>
        0 -1 926008 2.4624948855489492e-04</internalNodes>
      <leafValues>
        1.4362350106239319e-01 -5.5141472816467285e-01</leafValues></_>
    <_>
      <internalNodes>
        0 -1 605320 1.3254034519195557e-01</internalNodes>
      <leafValues>
        1.4172959327697754e-01 -5.4851746559143066e-01</leafValues></_>
    <_>
      <internalNodes>
        0 -1 1147399 -3.8468698039650917e-03</internalNodes>
      <leafValues>
        6.3546252250671387e-01 -1.5123346447944641e-01</leafValues></_>
    <_>
      <internalNodes>
        0 -1 896497 -2.1917242556810379e-03</internalNodes>
      <leafValues>
        5.8124190568923950e-01 -9.3448109924793243e-02</leafValues></_>
    <_>
      <internalNodes>
        0 -1 1132291 7.0046884939074516e-03</internalNodes>
      <leafValues>
        -2.8551486134529114e-01 2.4477390944957733e-01</leafValues></_>
    <_>
      <internalNodes>
        0 -1 758256 2.8914911672472954e-03</internalNodes>
      <leafValues>
        1.8713894486427307e-01 -4.1335037350654602e-01</leafValues></_>
    <_>
      <internalNodes>
        0 -1 459043 7.3993820697069168e-03</internalNodes>
      <leafValues>
        -1.9717343151569366e-01 4.0726131200790405e-01</leafValues></_>
    <_>
      <internalNodes>
        0 -1 1204543 1.6448330134153366e-03</internalNodes>
      <leafValues>
        -1.0611905902624130e-01 5.9322851896286011e-01</leafValues></_>
    <_>
      <internalNodes>
        0 -1 1215564 7.5075542554259300e-04</internalNodes>
      <leafValues>
        -2.0415043830871582e-01 4.2082464694976807e-01</leafValues></_>
    <_>
      <internalNodes>
        0 -1 235868 3.6308355629444122e-02</internalNodes>
      <leafValues>
        1.4543880522251129e-01 -5.5605292320251465e-01</leafValues></_>
    <_>
      <internalNodes>
        0 -1 461586 -5.8483332395553589e-02</internalNodes>
      <leafValues>
        -7.5930571556091309e-01 8.6147926747798920e-02</leafValues></_>
    <_>
      <internalNodes>
        0 -1 566449 6.2016747891902924e-02</internalNodes>
      <leafValues>
        5.7546708732843399e-02 -9.3934875726699829e-01</leafValues></_>
    <_>
      <internalNodes>
        0 -1 900287 -3.8569346070289612e-02</internalNodes>
      <leafValues>
        -8.7531685829162598e-01 6.2095873057842255e-02</leafValues></_></weakClassifiers></stage9>
</opencv_storage>
