<?xml version="1.0"?>
<opencv_storage>
<cascade>
  <stageType>BOOST</stageType>
  <featureType>HAAR</featureType>
  <height>20</height>
  <width>26</width>
  <stageParams>
    <boostType>GAB</boostType>
    <minHitRate>9.9900001287460327e-01</minHitRate>
    <maxFalseAlarm>5.0000000000000000e-01</maxFalseAlarm>
    <weightTrimRate>9.4999999999999996e-01</weightTrimRate>
    <maxDepth>1</maxDepth>
    <maxWeakCount>100</maxWeakCount></stageParams>
  <featureParams>
    <maxCatCount>0</maxCatCount>
    <featSize>1</featSize>
    <mode>ALL</mode></featureParams>
  <stageNum>4</stageNum>
  <stages>
    <!-- stage 0 -->
    <_>
      <maxWeakCount>6</maxWeakCount>
      <stageThreshold>-7.6049882173538208e-01</stageThreshold>
      <weakClassifiers>
        <_>
          <internalNodes>
            0 -1 10 -2.6955869980156422e-03</internalNodes>
          <leafValues>
            -9.2207789421081543e-01 5.1097178459167480e-01</leafValues></_>
        <_>
          <internalNodes>
            0 -1 19 -2.7547338977456093e-03</internalNodes>
          <leafValues>
            9.2568141222000122e-01 -3.9213198423385620e-01</leafValues></_>
        <_>
          <internalNodes>
            0 -1 18 -2.9835524037480354e-02</internalNodes>
          <leafValues>
            -8.6567091941833496e-01 3.8499531149864197e-01</leafValues></_>
        <_>
          <internalNodes>
            0 -1 5 -2.8417937457561493e-02</internalNodes>
          <leafValues>
            6.3385903835296631e-01 -4.5119476318359375e-01</leafValues></_>
        <_>
          <internalNodes>
            0 -1 7 -3.4440881572663784e-03</internalNodes>
          <leafValues>
            9.1968244314193726e-01 -2.1317435801029205e-01</leafValues></_>
        <_>
          <internalNodes>
            0 -1 22 3.0422487179748714e-04</internalNodes>
          <leafValues>
            -2.5196886062622070e-01 9.1948193311691284e-01</leafValues></_></weakClassifiers></_>
    <!-- stage 1 -->
    <_>
      <maxWeakCount>7</maxWeakCount>
      <stageThreshold>-1.5800679922103882e+00</stageThreshold>
      <weakClassifiers>
        <_>
          <internalNodes>
            0 -1 12 -3.5685691982507706e-03</internalNodes>
          <leafValues>
            9.6363633871078491e-01 -3.5454544425010681e-01</leafValues></_>
        <_>
          <internalNodes>
            0 -1 16 1.5379056334495544e-02</internalNodes>
          <leafValues>
            -5.8972483873367310e-01 4.4962108135223389e-01</leafValues></_>
        <_>
          <internalNodes>
            0 -1 11 2.6042614132165909e-02</internalNodes>
          <leafValues>
            3.2307356595993042e-01 -7.5837856531143188e-01</leafValues></_>
        <_>
          <internalNodes>
            0 -1 13 4.3524652719497681e-03</internalNodes>
          <leafValues>
            -3.4579670429229736e-01 9.3202126026153564e-01</leafValues></_>
        <_>
          <internalNodes>
            0 -1 6 1.4720051549375057e-02</internalNodes>
          <leafValues>
            4.0623372793197632e-01 -7.7857261896133423e-01</leafValues></_>
        <_>
          <internalNodes>
            0 -1 15 -8.9553563157096505e-04</internalNodes>
          <leafValues>
            7.3411369323730469e-01 -3.7721058726310730e-01</leafValues></_>
        <_>
          <internalNodes>
            0 -1 17 3.8434557616710663e-02</internalNodes>
          <leafValues>
            3.3949780464172363e-01 -7.7547317743301392e-01</leafValues></_></weakClassifiers></_>
    <!-- stage 2 -->
    <_>
      <maxWeakCount>9</maxWeakCount>
      <stageThreshold>-8.1409966945648193e-01</stageThreshold>
      <weakClassifiers>
        <_>
          <internalNodes>
            0 -1 3 -2.0771166682243347e-01</internalNodes>
          <leafValues>
            1. -3.6518770456314087e-01</leafValues></_>
        <_>
          <internalNodes>
            0 -1 14 -3.5645373165607452e-02</internalNodes>
          <leafValues>
            -6.9708740711212158e-01 4.5580261945724487e-01</leafValues></_>
        <_>
          <internalNodes>
            0 -1 20 -5.2180353552103043e-02</internalNodes>
          <leafValues>
            8.8011658191680908e-01 -3.6444041132926941e-01</leafValues></_>
        <_>
          <internalNodes>
            0 -1 23 4.4188584433868527e-04</internalNodes>
          <leafValues>
            -2.7918818593025208e-01 9.0054178237915039e-01</leafValues></_>
        <_>
          <internalNodes>
            0 -1 4 6.9479346275329590e-03</internalNodes>
          <leafValues>
            -2.7123767137527466e-01 9.0065300464630127e-01</leafValues></_>
        <_>
          <internalNodes>
            0 -1 21 -2.5839703157544136e-03</internalNodes>
          <leafValues>
            -5.2670955657958984e-01 5.8273321390151978e-01</leafValues></_>
        <_>
          <internalNodes>
            0 -1 8 3.8790288381278515e-03</internalNodes>
          <leafValues>
            4.0049543976783752e-01 -8.3864390850067139e-01</leafValues></_>
        <_>
          <internalNodes>
            0 -1 2 5.0719724968075752e-03</internalNodes>
          <leafValues>
            -3.9565154910087585e-01 9.5065462589263916e-01</leafValues></_>
        <_>
          <internalNodes>
            0 -1 0 -1.9469533581286669e-03</internalNodes>
          <leafValues>
            5.9926611185073853e-01 -4.7341722249984741e-01</leafValues></_></weakClassifiers></_>
    <!-- stage 3 -->
    <_>
      <maxWeakCount>2</maxWeakCount>
      <stageThreshold>9.8256736993789673e-02</stageThreshold>
      <weakClassifiers>
        <_>
          <internalNodes>
            0 -1 1 -5.3607679903507233e-02</internalNodes>
          <leafValues>
            -9.0174329280853271e-01 1.</leafValues></_>
        <_>
          <internalNodes>
            0 -1 9 -1.1895178817212582e-02</internalNodes>
          <leafValues>
            -8.9142042398452759e-01 1.</leafValues></_></weakClassifiers></_></stages>
  <features>
    <_>
      <rects>
        <_>
          1 9 24 2 -1.</_>
        <_>
          7 9 12 2 2.</_></rects>
      <tilted>0</tilted></_>
    <_>
      <rects>
        <_>
          2 12 22 2 -1.</_>
        <_>
          13 12 11 2 2.</_></rects>
      <tilted>0</tilted></_>
    <_>
      <rects>
        <_>
          3 16 13 4 -1.</_>
        <_>
          3 17 13 2 2.</_></rects>
      <tilted>0</tilted></_>
    <_>
      <rects>
        <_>
          4 1 15 16 -1.</_>
        <_>
          4 5 15 8 2.</_></rects>
      <tilted>0</tilted></_>
    <_>
      <rects>
        <_>
          4 12 2 4 -1.</_>
        <_>
          4 12 2 2 2.</_></rects>
      <tilted>1</tilted></_>
    <_>
      <rects>
        <_>
          6 1 6 12 -1.</_>
        <_>
          6 5 6 4 3.</_></rects>
      <tilted>0</tilted></_>
    <_>
      <rects>
        <_>
          6 13 8 5 -1.</_>
        <_>
          8 13 4 5 2.</_></rects>
      <tilted>0</tilted></_>
    <_>
      <rects>
        <_>
          6 17 9 3 -1.</_>
        <_>
          6 18 9 1 3.</_></rects>
      <tilted>0</tilted></_>
    <_>
      <rects>
        <_>
          7 4 4 3 -1.</_>
        <_>
          8 4 2 3 2.</_></rects>
      <tilted>0</tilted></_>
    <_>
      <rects>
        <_>
          8 6 3 4 -1.</_>
        <_>
          9 7 1 4 3.</_></rects>
      <tilted>1</tilted></_>
    <_>
      <rects>
        <_>
          8 6 8 14 -1.</_>
        <_>
          8 13 8 7 2.</_></rects>
      <tilted>0</tilted></_>
    <_>
      <rects>
        <_>
          8 13 6 7 -1.</_>
        <_>
          11 13 3 7 2.</_></rects>
      <tilted>0</tilted></_>
    <_>
      <rects>
        <_>
          9 17 6 3 -1.</_>
        <_>
          9 18 6 1 3.</_></rects>
      <tilted>0</tilted></_>
    <_>
      <rects>
        <_>
          10 18 8 2 -1.</_>
        <_>
          10 18 4 1 2.</_>
        <_>
          14 19 4 1 2.</_></rects>
      <tilted>0</tilted></_>
    <_>
      <rects>
        <_>
          11 10 6 4 -1.</_>
        <_>
          13 12 2 4 3.</_></rects>
      <tilted>1</tilted></_>
    <_>
      <rects>
        <_>
          12 16 2 3 -1.</_>
        <_>
          12 17 2 1 3.</_></rects>
      <tilted>0</tilted></_>
    <_>
      <rects>
        <_>
          13 10 6 8 -1.</_>
        <_>
          13 14 6 4 2.</_></rects>
      <tilted>0</tilted></_>
    <_>
      <rects>
        <_>
          14 0 6 16 -1.</_>
        <_>
          17 0 3 16 2.</_></rects>
      <tilted>0</tilted></_>
    <_>
      <rects>
        <_>
          14 7 12 8 -1.</_>
        <_>
          20 7 6 8 2.</_></rects>
      <tilted>0</tilted></_>
    <_>
      <rects>
        <_>
          14 16 3 3 -1.</_>
        <_>
          14 17 3 1 3.</_></rects>
      <tilted>0</tilted></_>
    <_>
      <rects>
        <_>
          15 5 8 5 -1.</_>
        <_>
          15 5 4 5 2.</_></rects>
      <tilted>1</tilted></_>
    <_>
      <rects>
        <_>
          19 9 4 7 -1.</_>
        <_>
          21 9 2 7 2.</_></rects>
      <tilted>0</tilted></_>
    <_>
      <rects>
        <_>
          24 11 2 2 -1.</_>
        <_>
          24 11 1 1 2.</_>
        <_>
          25 12 1 1 2.</_></rects>
      <tilted>0</tilted></_>
    <_>
      <rects>
        <_>
          24 12 2 3 -1.</_>
        <_>
          25 12 1 3 2.</_></rects>
      <tilted>0</tilted></_></features></cascade>
</opencv_storage>
