<?xml version="1.0"?>
<opencv_storage>
<stage0>
  <maxWeakCount>6</maxWeakCount>
  <stageThreshold>-7.6049882173538208e-01</stageThreshold>
  <weakClassifiers>
    <_>
      <internalNodes>
        0 -1 103011 -2.6955869980156422e-03</internalNodes>
      <leafValues>
        -9.2207789421081543e-01 5.1097178459167480e-01</leafValues></_>
    <_>
      <internalNodes>
        0 -1 163517 -2.7547338977456093e-03</internalNodes>
      <leafValues>
        9.2568141222000122e-01 -3.9213198423385620e-01</leafValues></_>
    <_>
      <internalNodes>
        0 -1 160943 -2.9835524037480354e-02</internalNodes>
      <leafValues>
        -8.6567091941833496e-01 3.8499531149864197e-01</leafValues></_>
    <_>
      <internalNodes>
        0 -1 75823 -2.8417937457561493e-02</internalNodes>
      <leafValues>
        6.3385903835296631e-01 -4.5119476318359375e-01</leafValues></_>
    <_>
      <internalNodes>
        0 -1 85535 -3.4440881572663784e-03</internalNodes>
      <leafValues>
        9.1968244314193726e-01 -2.1317435801029205e-01</leafValues></_>
    <_>
      <internalNodes>
        0 -1 209550 3.0422487179748714e-04</internalNodes>
      <leafValues>
        -2.5196886062622070e-01 9.1948193311691284e-01</leafValues></_></weakClassifiers></stage0>
</opencv_storage>
